digraph Tree {
node [shape=box] ;
0 [label="Destination <= 2.5\ngini = 0.736\nsamples = 326\nvalue = [105, 70, 56, 95]"] ;
1 [label="Airfare <= 36.5\ngini = 0.677\nsamples = 200\nvalue = [71, 53, 5, 71]"] ;
0 -> 1 [labeldistance=2.5, labelangle=45, headlabel="True"] ;
2 [label="Airfare <= 25.5\ngini = 0.632\nsamples = 64\nvalue = [10, 34, 5, 15]"] ;
1 -> 2 ;
3 [label="gini = 0.698\nsamples = 19\nvalue = [4, 2, 5, 8]"] ;
2 -> 3 ;
4 [label="ModeTransport <= 5.5\ngini = 0.452\nsamples = 45\nvalue = [6, 32, 0, 7]"] ;
2 -> 4 ;
5 [label="ProvinceResidence <= 3.5\ngini = 0.34\nsamples = 35\nvalue = [4, 28, 0, 3]"] ;
4 -> 5 ;
6 [label="AccessTime <= 39.5\ngini = 0.469\nsamples = 23\nvalue = [4, 16, 0, 3]"] ;
5 -> 6 ;
7 [label="gini = 0.62\nsamples = 10\nvalue = [3, 5, 0, 2]"] ;
6 -> 7 ;
8 [label="gini = 0.272\nsamples = 13\nvalue = [1, 11, 0, 1]"] ;
6 -> 8 ;
9 [label="gini = 0.0\nsamples = 12\nvalue = [0, 12, 0, 0]"] ;
5 -> 9 ;
10 [label="gini = 0.64\nsamples = 10\nvalue = [2, 4, 0, 4]"] ;
4 -> 10 ;
11 [label="DepartureTime <= 2.5\ngini = 0.61\nsamples = 136\nvalue = [61, 19, 0, 56]"] ;
1 -> 11 ;
12 [label="Airfare <= 46.603\ngini = 0.552\nsamples = 92\nvalue = [53, 9, 0, 30]"] ;
11 -> 12 ;
13 [label="FrequentFlightDestination <= 0.5\ngini = 0.597\nsamples = 38\nvalue = [14, 5, 0, 19]"] ;
12 -> 13 ;
14 [label="gini = 0.512\nsamples = 11\nvalue = [7, 3, 0, 1]"] ;
13 -> 14 ;
15 [label="Occupation <= 4.5\ngini = 0.483\nsamples = 27\nvalue = [7, 2, 0, 18]"] ;
13 -> 15 ;
16 [label="gini = 0.153\nsamples = 12\nvalue = [0, 1, 0, 11]"] ;
15 -> 16 ;
17 [label="gini = 0.56\nsamples = 15\nvalue = [7, 1, 0, 7]"] ;
15 -> 17 ;
18 [label="AccessTime <= 35.0\ngini = 0.431\nsamples = 54\nvalue = [39, 4, 0, 11]"] ;
12 -> 18 ;
19 [label="Airfare <= 54.625\ngini = 0.567\nsamples = 23\nvalue = [12, 2, 0, 9]"] ;
18 -> 19 ;
20 [label="gini = 0.473\nsamples = 13\nvalue = [9, 2, 0, 2]"] ;
19 -> 20 ;
21 [label="gini = 0.42\nsamples = 10\nvalue = [3, 0, 0, 7]"] ;
19 -> 21 ;
22 [label="ModeTransport <= 1.5\ngini = 0.233\nsamples = 31\nvalue = [27, 2, 0, 2]"] ;
18 -> 22 ;
23 [label="gini = 0.5\nsamples = 12\nvalue = [8, 2, 0, 2]"] ;
22 -> 23 ;
24 [label="gini = 0.0\nsamples = 19\nvalue = [19, 0, 0, 0]"] ;
22 -> 24 ;
25 [label="Nationality <= 0.5\ngini = 0.566\nsamples = 44\nvalue = [8, 10, 0, 26]"] ;
11 -> 25 ;
26 [label="TripDuration <= 3.5\ngini = 0.234\nsamples = 23\nvalue = [1, 2, 0, 20]"] ;
25 -> 26 ;
27 [label="gini = 0.0\nsamples = 11\nvalue = [0, 0, 0, 11]"] ;
26 -> 27 ;
28 [label="gini = 0.403\nsamples = 12\nvalue = [1, 2, 0, 9]"] ;
26 -> 28 ;
29 [label="TripPurpose <= 0.5\ngini = 0.662\nsamples = 21\nvalue = [7, 8, 0, 6]"] ;
25 -> 29 ;
30 [label="gini = 0.562\nsamples = 11\nvalue = [4, 6, 0, 1]"] ;
29 -> 30 ;
31 [label="gini = 0.62\nsamples = 10\nvalue = [3, 2, 0, 5]"] ;
29 -> 31 ;
32 [label="Airfare <= 57.5\ngini = 0.709\nsamples = 126\nvalue = [34, 17, 51, 24]"] ;
0 -> 32 [labeldistance=2.5, labelangle=-45, headlabel="False"] ;
33 [label="TripDuration <= 7.5\ngini = 0.556\nsamples = 75\nvalue = [9, 3, 46, 17]"] ;
32 -> 33 ;
34 [label="Occupation <= 2.5\ngini = 0.46\nsamples = 65\nvalue = [8, 1, 46, 10]"] ;
33 -> 34 ;
35 [label="Gender <= 1.5\ngini = 0.14\nsamples = 27\nvalue = [1, 0, 25, 1]"] ;
34 -> 35 ;
36 [label="gini = 0.0\nsamples = 17\nvalue = [0, 0, 17, 0]"] ;
35 -> 36 ;
37 [label="gini = 0.34\nsamples = 10\nvalue = [1, 0, 8, 1]"] ;
35 -> 37 ;
38 [label="Airfare <= 42.784\ngini = 0.604\nsamples = 38\nvalue = [7, 1, 21, 9]"] ;
34 -> 38 ;
39 [label="gini = 0.593\nsamples = 18\nvalue = [1, 1, 7, 9]"] ;
38 -> 39 ;
40 [label="ModeTransport <= 2.5\ngini = 0.42\nsamples = 20\nvalue = [6, 0, 14, 0]"] ;
38 -> 40 ;
41 [label="gini = 0.32\nsamples = 10\nvalue = [2, 0, 8, 0]"] ;
40 -> 41 ;
42 [label="gini = 0.48\nsamples = 10\nvalue = [4, 0, 6, 0]"] ;
40 -> 42 ;
43 [label="gini = 0.46\nsamples = 10\nvalue = [1, 2, 0, 7]"] ;
33 -> 43 ;
44 [label="Airfare <= 60.742\ngini = 0.656\nsamples = 51\nvalue = [25, 14, 5, 7]"] ;
32 -> 44 ;
45 [label="gini = 0.514\nsamples = 12\nvalue = [2, 8, 1, 1]"] ;
44 -> 45 ;
46 [label="Airfare <= 60.896\ngini = 0.594\nsamples = 39\nvalue = [23, 6, 4, 6]"] ;
44 -> 46 ;
47 [label="gini = 0.0\nsamples = 11\nvalue = [11, 0, 0, 0]"] ;
46 -> 47 ;
48 [label="Airfare <= 78.0\ngini = 0.704\nsamples = 28\nvalue = [12, 6, 4, 6]"] ;
46 -> 48 ;
49 [label="gini = 0.724\nsamples = 14\nvalue = [2, 5, 4, 3]"] ;
48 -> 49 ;
50 [label="gini = 0.439\nsamples = 14\nvalue = [10, 1, 0, 3]"] ;
48 -> 50 ;
}