digraph Tree {
node [shape=box] ;
0 [label="Destination <= 1.5\ngini = 0.499\nsamples = 325\nvalue = [168, 157]"] ;
1 [label="Occupation <= 0.5\ngini = 0.352\nsamples = 197\nvalue = [152, 45]"] ;
0 -> 1 [labeldistance=2.5, labelangle=45, headlabel="True"] ;
2 [label="ProvinceResidence <= 0.5\ngini = 0.473\nsamples = 26\nvalue = [10, 16]"] ;
1 -> 2 ;
3 [label="gini = 0.337\nsamples = 14\nvalue = [3, 11]"] ;
2 -> 3 ;
4 [label="gini = 0.486\nsamples = 12\nvalue = [7, 5]"] ;
2 -> 4 ;
5 [label="AccessTime <= 33.5\ngini = 0.282\nsamples = 171\nvalue = [142, 29]"] ;
1 -> 5 ;
6 [label="gini = 0.0\nsamples = 49\nvalue = [49, 0]"] ;
5 -> 6 ;
7 [label="TripDuration <= 9.5\ngini = 0.362\nsamples = 122\nvalue = [93, 29]"] ;
5 -> 7 ;
8 [label="Nationality <= 0.5\ngini = 0.292\nsamples = 90\nvalue = [74, 16]"] ;
7 -> 8 ;
9 [label="gini = 0.0\nsamples = 30\nvalue = [30, 0]"] ;
8 -> 9 ;
10 [label="DepartureTime <= 2.5\ngini = 0.391\nsamples = 60\nvalue = [44, 16]"] ;
8 -> 10 ;
11 [label="FrequentFlightDestination <= 1.5\ngini = 0.289\nsamples = 40\nvalue = [33, 7]"] ;
10 -> 11 ;
12 [label="Age <= 39.5\ngini = 0.137\nsamples = 27\nvalue = [25, 2]"] ;
11 -> 12 ;
13 [label="gini = 0.32\nsamples = 10\nvalue = [8, 2]"] ;
12 -> 13 ;
14 [label="gini = 0.0\nsamples = 17\nvalue = [17, 0]"] ;
12 -> 14 ;
15 [label="gini = 0.473\nsamples = 13\nvalue = [8, 5]"] ;
11 -> 15 ;
16 [label="Age <= 53.0\ngini = 0.495\nsamples = 20\nvalue = [11, 9]"] ;
10 -> 16 ;
17 [label="gini = 0.48\nsamples = 10\nvalue = [6, 4]"] ;
16 -> 17 ;
18 [label="gini = 0.5\nsamples = 10\nvalue = [5, 5]"] ;
16 -> 18 ;
19 [label="TripDuration <= 45.0\ngini = 0.482\nsamples = 32\nvalue = [19, 13]"] ;
7 -> 19 ;
20 [label="DepartureTime <= 2.5\ngini = 0.48\nsamples = 20\nvalue = [8, 12]"] ;
19 -> 20 ;
21 [label="gini = 0.48\nsamples = 10\nvalue = [6, 4]"] ;
20 -> 21 ;
22 [label="gini = 0.32\nsamples = 10\nvalue = [2, 8]"] ;
20 -> 22 ;
23 [label="gini = 0.153\nsamples = 12\nvalue = [11, 1]"] ;
19 -> 23 ;
24 [label="DepartureTime <= 1.5\ngini = 0.219\nsamples = 128\nvalue = [16, 112]"] ;
0 -> 24 [labeldistance=2.5, labelangle=-45, headlabel="False"] ;
25 [label="gini = 0.432\nsamples = 19\nvalue = [13, 6]"] ;
24 -> 25 ;
26 [label="Airline <= 0.5\ngini = 0.054\nsamples = 109\nvalue = [3, 106]"] ;
24 -> 26 ;
27 [label="Occupation <= 0.5\ngini = 0.236\nsamples = 22\nvalue = [3, 19]"] ;
26 -> 27 ;
28 [label="gini = 0.0\nsamples = 12\nvalue = [0, 12]"] ;
27 -> 28 ;
29 [label="gini = 0.42\nsamples = 10\nvalue = [3, 7]"] ;
27 -> 29 ;
30 [label="gini = 0.0\nsamples = 87\nvalue = [0, 87]"] ;
26 -> 30 ;
}